0.07008050 0.00257087 -0.00931496 0.13312495 0.02780931 0.10928629 0.06249168 0.21012935 0.11515229 -0.05966285 -0.03643609 0.09227289 0.14020126 0.11355096 -0.01752331 0.08451606 -0.01454110 0.05862001 0.03283560 0.12526035 -0.03836723 0.11816330 0.07780144 0.09754262 -0.01094667 0.02983559 0.04778381 0.12766060 -0.00052555 -0.11633079 0.06451017 -0.05507499 -0.00269860 0.13891399 -0.03104174 -0.03413729 -0.00381212 -0.03175627 -0.06495247 0.05159006 0.20030673 -0.06767970 -0.07782651 -0.00278722 0.13607414 0.11752606 0.03636309 0.00589876 0.04087844 -0.07090131 0.21505554 0.02858734 0.12978028 0.10951056 0.04694133 0.20140629 0.02649320 -0.04228296 -0.03586364 -0.02974266 0.09372645 0.14996751 0.02990302 0.01717333 -0.01499641 0.12712064 -0.07769793 0.01676004 -0.02677068 -0.00393925 0.03981923 0.05566024 0.05006859 0.00768837 -0.04242726 0.08677572 0.12561548 0.01603534 -0.00754792 -0.03679955 -0.01036999 -0.07733324 -0.00286396 -0.09955205 -0.00425845 0.10053462 0.08579244 -0.01678180 0.04632881 0.00848147 0.06713514 -0.10434908 0.03337368 -0.02753697 0.11879886 0.06251340 0.03712790 0.01913277 0.03855541 0.12655140
0.12226048 -0.06273118 -0.08086795 0.04667562 0.01109785 -0.00508292 -0.08146740 0.15929146 0.12159283 0.18667242 -0.04763750 0.12127510 -0.03370227 0.08616815 -0.03391874 -0.09128866 -0.06060762 -0.02736086 -0.09185701 -0.06721380 0.09336029 0.04813110 0.03179191 -0.00356977 -0.02397228 -0.06822415 0.21393760 0.09405180 -0.01414513 -0.03324610 0.00752633 0.14622173 0.02742531 0.16362368 -0.05211642 -0.05024694 -0.07410471 0.01963093 -0.02898080 0.03184674 0.04669990 0.10030673 0.03840352 0.02808525 -0.03441307 0.20156164 0.06804404 0.07295284 -0.06143913 0.06795257 0.18585685 0.09438697 -0.01061661 0.01824419 0.00579898 0.03256346 0.03021223 0.06407369 0.12390845 0.08587806 0.06630636 0.02488893 0.08016172 0.13086534 0.09993283 0.06108396 -0.07639450 -0.07120229 0.00942673 -0.05261540 -0.05492999 0.26747918 -0.08735998 0.04052801 0.02966469 0.08299605 0.05328112 0.03396695 0.12082537 0.08370771 0.01653107 0.03991606 0.07372595 0.05014766 0.07752723 0.05008037 -0.02120819 0.04569403 0.08123291 0.02965370 -0.06082422 0.07954016 0.04724545 0.14547971 0.03030777 0.05809826 0.11797650 0.02762205 -0.00578460 -0.01901198
-0.14080001 -0.06317532 0.02421786 0.00791238 -0.17708038 -0.09294962 0.08259749 -0.17547002 -0.34686503 -0.43701938 -0.19388263 -0.09105310 -0.11106693 -0.00402637 0.10300402 0.01684036 0.06188721 -0.05677586 0.11496537 0.07309780 -0.05394057 0.03215090 0.04660439 0.12955661 -0.21241744 0.01975377 -0.16924371 -0.24941696 0.00684458 -0.13704085 -0.21335559 -0.08327639 0.00098354 -0.27238652 -0.06396291 -0.19338408 -0.18132980 -0.25338110 -0.03216921 -0.04494564 -0.15072083 -0.08579113 -0.45447725 -0.02458438 -0.22665577 -0.24374619 0.12028664 -0.07760077 -0.12863386 -0.18609357 -0.08969118 -0.20620152 -0.24905850 -0.04464369 0.10872143 -0.16792804 0.00091232 -0.03605351 0.11139802 0.13047275 0.05305569 -0.07740205 -0.23429094 -0.12250810 -0.07909769 0.03632708 -0.26710266 -0.25637069 0.12378292 -0.12819007 -0.13631785 -0.22193871 -0.12859820 0.09564444 -0.20290273 0.10628521 -0.29669628 0.12539284 0.10712946 -0.01981202 -0.15446082 -0.21489069 0.08738427 -0.17485359 -0.01158250 -0.06885953 0.08088378 0.08056175 -0.00887058 -0.15112370 -0.05719316 -0.21654597 -0.22688173 -0.47505531 -0.08556071 -0.17082991 -0.04060622 0.01150012 0.08303978 -0.20251562
-0.12116472 -0.15101327 -0.08041679 -0.07071632 -0.13844864 -0.10275424 -0.17814375 -0.11237151 -0.16806434 -0.10844599 -0.19280273 -0.23386887 -0.10451482 -0.19102913 -0.06880108 -0.15332447 -0.04149183 -0.09087752 -0.09460600 -0.10290997 -0.05430791 -0.13437055 -0.10429628 -0.13131376 -0.00020467 -0.02439975 -0.08252244 -0.00721391 -0.17399356 -0.07649413 -0.17695054 -0.06769549 -0.01212495 -0.01518575 -0.18263309 -0.12537384 -0.04439179 -0.17458838 -0.18976906 -0.03789647 -0.14338259 -0.13433084 -0.07397477 -0.01764910 -0.23366909 -0.12484443 -0.18561101 -0.01519878 -0.14191110 -0.18346691 -0.22590902 -0.18831243 -0.15721945 -0.17668270 -0.09820386 -0.20707501 -0.03826205 -0.04828346 -0.01025444 -0.10337108 -0.10673154 -0.09867351 -0.18747444 -0.06037700 -0.13427690 -0.12884638 -0.14102893 -0.12762305 -0.03019949 -0.13742380 -0.07007009 -0.05744831 -0.12974679 -0.11553240 -0.10096340 -0.01246987 -0.11798666 -0.11849616 -0.11161640 -0.10820913 -0.20144492 -0.05573670 -0.08817276 -0.15798047 -0.03238884 -0.21229194 -0.11123794 -0.01429195 -0.16651940 -0.04486900 -0.02779017 -0.02502189 -0.15062653 -0.18172349 -0.19334142 -0.18513517 -0.18568943 0.00073817 -0.19743952 -0.07678623
-0.15782140 -0.00023522 -0.07521105 -0.14224198 -0.02909263 -0.13439448 -0.15418114 -0.26646498 -0.09719275 -0.15769064 -0.05061879 -0.09365033 -0.21163781 -0.10280790 -0.00413474 -0.11013807 -0.10902382 -0.04177429 -0.12731291 -0.12565634 -0.21469320 -0.13230681 -0.05011095 -0.13929394 -0.14396311 -0.00557707 -0.19821228 -0.23672466 -0.02855928 -0.19418480 -0.15949421 -0.17157136 -0.05619107 -0.12287388 -0.07232513 -0.19306172 -0.03756513 -0.19356719 -0.02942721 -0.19280843 -0.18451981 -0.22589716 -0.11529846 0.01157027 -0.08050159 -0.24244300 -0.14527303 -0.11703189 -0.26057297 -0.17349388 -0.20444697 -0.16643383 -0.24782488 -0.07540395 -0.02567579 -0.12356041 -0.05829115 -0.01514307 -0.01691444 -0.13134211 0.00367271 -0.05225652 -0.19322380 -0.19188856 -0.12845561 -0.09063338 -0.05093240 -0.19233809 -0.10079929 -0.23329055 -0.03496948 -0.18722406 -0.17483979 -0.06836724 -0.10003509 0.00615627 -0.16878110 -0.06558291 -0.01895461 -0.00076163 -0.18395795 -0.03612477 -0.12230013 -0.07685009 -0.04247881 -0.16992876 -0.20603499 0.01660025 -0.03984309 -0.04956255 -0.05441022 -0.18779068 -0.10376066 -0.16883501 -0.15545890 -0.05855516 -0.19590466 -0.09344356 -0.02464638 -0.16824169
-0.20413579 -0.23561901 -0.19101655 -0.21002416 0.09733984 -0.03141005 -0.07716031 -0.00825913 -0.00883881 0.01911872 0.01977051 -0.06313664 -0.07206826 -0.26561725 -0.08607203 -0.24338669 -0.21974206 -0.06781475 -0.14621936 -0.21258618 -0.23393995 -0.08211952 -0.09626777 -0.14938286 0.10169771 -0.19479294 -0.16336462 -0.05303280 -0.08535551 0.08503024 -0.06312353 -0.34784085 -0.12606896 0.00864032 -0.19400777 0.08428644 0.05976253 -0.00264279 -0.34629729 -0.10128528 -0.34012756 0.11277631 0.04707326 -0.11592003 -0.08791856 -0.16376354 -0.15590142 -0.34503821 -0.09091699 -0.00023711 -0.37737206 -0.06615204 -0.07362320 -0.27108923 -0.07951532 -0.12760013 -0.14528176 -0.08518080 -0.12412227 -0.21009009 -0.05915761 -0.27345467 0.08778531 -0.11074150 0.01055280 -0.17474516 0.00065100 0.08416191 -0.16496073 0.09882959 0.05224681 -0.12414918 0.07798932 -0.18713908 0.06785542 -0.10678267 -0.02528843 -0.07174785 -0.18152137 -0.15991446 0.07328584 0.01638008 -0.21992640 0.05708985 -0.19985290 -0.27789852 -0.20209529 -0.06432170 -0.14937589 0.05056436 0.04563621 0.03084872 0.01785127 0.07951088 -0.20056799 0.11229532 -0.23669757 -0.24820431 -0.24784996 -0.05339683
