-0.06264631 0.70337147
-0.50972325 -0.41651425
-0.41732073 0.18248473
-0.63939279 -0.21859024
0.55593932 0.02815201
0.55311644 0.28287160
-0.57310915 0.71167392
0.12081669 0.82995671
0.07082164 -0.64371186
0.06877565 -0.62496674
0.69322103 -0.13497142
0.05406616 0.36034214
0.33559960 0.73013324
-0.25275150 -0.12851229
-0.61477441 0.00483715
-0.18587197 0.16240610
-0.38272259 0.04526133
0.50168604 -0.35507274
-0.37472028 0.12232130
-0.19850457 0.03452937
-0.11857483 -0.55755097
-0.44386905 -0.16015941
-0.45908970 0.03592550
-0.28737605 0.18223034
0.46790254 -0.23592141
-0.20517501 -0.09674783
0.02392401 -0.21211688
0.07775538 -0.71398252
-0.15465498 0.19607605
0.26229778 -0.42232537
0.38203907 0.27058148
-0.19735071 -0.81826448
-0.47728708 0.48723531
0.03896896 -0.29001737
-0.40037653 -0.20600638
0.54309791 -0.38301599
0.49886492 0.32505518
0.37863889 -0.61138642
-0.32087016 -1.00710118
-0.14638966 -0.30266660
-0.06259438 0.65515977
0.43172091 -0.49958742
0.07468404 -0.38447261
-0.53678596 0.46596715
0.09464370 0.58430427
0.06671631 -0.72623289
-0.16244963 0.18597697
-0.15514834 -0.89149910
0.24329846 0.64627206
0.40596512 -0.07952310
-0.04224485 0.40060607
0.13250129 0.00407467
0.48054200 0.84401315
-0.06490158 0.81169033
-0.20212014 0.13890046
0.16011079 0.91231656
-0.61652428 0.61560577
-0.35473520 -0.63093734
-0.05886475 -0.17187682
-0.63253701 0.40485287
-0.28290424 0.31244281
-0.08114059 0.83301103
0.15392078 0.25879258
0.02695856 -0.79101747
0.66998708 0.45970735
-0.12432749 -0.61831760
0.19957758 0.11067788
0.13200022 0.21381077
-0.71299821 -0.57306409
0.68148577 0.60697579
0.29336160 -0.20094082
0.05271117 -0.58592528
0.70663029 0.72810209
-0.57303441 -0.67559916
0.53168505 -0.19378470
-0.64545393 -0.50919878
0.28163785 0.84368181
-0.65802574 -0.45171064
-0.41113001 -0.26224554
-0.27235469 0.25101453
0.71834165 0.00054626
0.57636040 -0.40301961
-0.64391732 -0.67336875
0.52075380 -0.45474261
-0.40866384 0.32747447
-0.07843344 0.74016100
-0.23947613 0.59359801
-0.20438550 -0.05930481
-0.55957472 -0.28810316
0.35361007 0.34249189
0.53956652 -0.47361809
0.57318634 -0.51095808
0.35025713 -0.52467000
0.09477260 -0.80604726
-0.06884192 0.78504962
0.44042313 -0.55344456
-0.11117478 -0.80839998
-0.59877026 -0.05113167
-0.42390883 0.66245282
0.49042499 0.59384197
